{"model_type":"linear_residual_regression_v2","model_version":"linear-v2-20260326013618","trained_at":"2026-03-25T16:36:18.456608+00:00","sample_count":431,"minimum_ml_samples":30,"recommended_ml_samples":100,"target":"delta = corrected_score - rule_score","feature_names":["brightnessMean","brightnessStd","contrast","overexposedRatio","underexposedRatio","entropy","saturationRatio","sharpnessRaw","noiseEstimate","meanEdge","dominantEdge","leftRightBalance","topBottomBalance","thirdsAlignment","subjectConcentration","subjectCenterSupport","subjectXRatio","subjectYRatio","backgroundInformation","backgroundClutter","compositionScore","lightScore","colorScore","technicalScore","subjectScore","impactScore","ruleTotalScore"],"means":[111.82925685749997,53.72461639780122,0.41972356560782204,0.018855263004048006,0.126318886677822,6.829370301990633,0.3001564639995995,19.784395011336798,1.5990040775124947,53.93641326328111,99.09616540985112,0.8679408223192585,0.7202082444244345,0.5005974152290001,0.06609828151697104,0.9004690000207322,0.49561923027999494,0.5178879668124848,0.5367988812390616,0.34159503586762796,64.5707656612529,74.05800464037122,69.70997679814386,67.53364269141531,62.4245939675174,67.98143851508121,66.1368909512761],"scales":[43.87411654983687,13.209866369135025,0.10320208100886738,0.07570838646701823,0.22893538729956145,1.5315330764046855,0.22864892202969886,15.550788700896124,1.1232713365979747,33.059950531773886,68.10842801720912,0.1422352857114365,0.2218206592903135,0.09683505688600218,0.026919968690964597,0.11858000583403816,0.03384129253100373,0.07035752993723032,0.25638559655105037,0.10600136878821546,4.107486133536758,13.865073203963055,12.224575595551,27.871317749401598,9.332141313443035,5.172175133392964,6.321789269514981],"weights":[3.6785962700862047,-0.07586430324518945,-0.07586430324518945,-2.1334125085637416,2.6013281318366728,0.24757201960905556,1.3340113885256077,-1.2234513126024829,-0.9587992519664593,-1.0537500980526884,2.670617391041736,-1.015471085499339,-1.2358592079665054,-1.5102818185717433,0.39313800410974836,-0.010605226188258998,-0.0893741078191302,0.6332934966243204,-1.3238926173250156,0.3828049644300229,1.127004355946532,-0.7210899033040146,-0.34597898111780173,-0.5138584017069807,-1.531615990328513,-0.030839577362783123,-1.0901339643360266],"bias":-0.25058004640373377,"training_mae":4.401768285756072}