{"model_type":"linear_residual_regression_v2","model_version":"linear-v2-20260325064517","trained_at":"2026-03-24T21:45:17.229242+00:00","sample_count":354,"minimum_ml_samples":30,"recommended_ml_samples":100,"target":"delta = corrected_score - rule_score","feature_names":["brightnessMean","brightnessStd","contrast","overexposedRatio","underexposedRatio","entropy","saturationRatio","sharpnessRaw","noiseEstimate","meanEdge","dominantEdge","leftRightBalance","topBottomBalance","thirdsAlignment","subjectConcentration","subjectCenterSupport","subjectXRatio","subjectYRatio","backgroundInformation","backgroundClutter","compositionScore","lightScore","colorScore","technicalScore","subjectScore","impactScore","ruleTotalScore"],"means":[119.08364940216327,53.53145305162388,0.41821447696581154,0.01944487680788771,0.0891823953010767,7.092090415257304,0.30514112239510605,20.676858408109425,1.6401231536989334,56.6830589478924,105.05008069992431,0.8681957410902864,0.7147563688900138,0.5076066859941553,0.06316018393298194,0.8932101738604266,0.4942691590053234,0.520103906158143,0.5714520281819981,0.35518156456846783,64.18926553672317,75.99435028248588,70.38135593220339,70.454802259887,61.41242937853107,68.51412429378531,66.88983050847457],"scales":[40.81013475672106,12.714794862848356,0.09933433486600278,0.08108677104448975,0.17500440720396615,1.1309304547253531,0.23010445919522235,15.84481082429858,1.0825824960974968,33.025276396357086,67.58066516528162,0.138700724707877,0.2243109519259587,0.09393093915252268,0.02343710107467683,0.1265999478525258,0.03478911194347811,0.0726640044829607,0.23197925575922823,0.10027404091271519,3.9909216219774417,13.230463552756005,12.372001942278906,26.388437848412742,9.095504773923771,4.914072200229749,5.879367204753824],"weights":[2.9471202055296124,-0.0037631363066017802,-0.0037631363066017802,-2.167141602510296,1.4074691829370853,0.6130528970342265,1.593079685179606,-0.43682627343134706,-1.076426577402347,-1.848176960836122,3.457012100168628,-1.0017466647407833,-1.0500431622713386,-1.1029581558989636,0.43720513886966733,-0.000793608096696841,0.07532765072987552,0.45426691399914165,-1.3676611404738364,0.0005357966776002411,1.0001790483526032,-0.6782367219415907,-0.21892617611705387,-0.69774937223609,-1.1413908572062952,-0.1743075958587737,-1.1923787427714674],"bias":-0.056497175141265815,"training_mae":4.557700312612268}