{"model_type":"linear_residual_regression_v2","model_version":"linear-v2-20260407123406","trained_at":"2026-04-07T03:34:06.495177+00:00","sample_count":571,"minimum_ml_samples":30,"recommended_ml_samples":100,"target":"delta = corrected_score - rule_score","feature_names":["brightnessMean","brightnessStd","contrast","overexposedRatio","underexposedRatio","entropy","saturationRatio","sharpnessRaw","noiseEstimate","meanEdge","dominantEdge","leftRightBalance","topBottomBalance","thirdsAlignment","subjectConcentration","subjectCenterSupport","subjectXRatio","subjectYRatio","backgroundInformation","backgroundClutter","compositionScore","lightScore","colorScore","technicalScore","subjectScore","impactScore","ruleTotalScore"],"means":[114.83525341208446,55.09266958890486,0.43041148116331923,0.027185878659653172,0.11691326983066774,6.8889650635212245,0.3037322978095144,22.200884410303352,1.6914309601970154,57.76882135818238,107.3267318476827,0.8650177508486756,0.7180029209088502,0.4999548826176571,0.06556490354074275,0.9014562879792843,0.49690674692306147,0.5194644626310159,0.5547807805693817,0.3532608236112904,64.26444833625219,73.74781085814361,68.84588441330999,69.59719789842381,61.74430823117338,67.85464098073555,66.00875656742556],"scales":[43.73909947608347,13.85258173797327,0.10822329482791618,0.09361344279333672,0.2123468630146619,1.4318217784402165,0.23035881995427918,18.290372501747083,1.279025516355513,35.163056114414665,72.46947507707922,0.1458439214747551,0.22818393007291107,0.09833997662969862,0.026604244712218745,0.1082209084504901,0.034570243075239544,0.07071369898418713,0.2541804378023577,0.10614737880041296,4.261395210961239,14.096097804578378,12.95488857741314,27.292582067863464,9.432279505801949,5.435972677604774,6.620690941392829],"weights":[2.786847979301127,-0.32690986101405406,-0.32690986101405406,-1.6971360986896402,2.977757203082342,1.2917910152063854,1.1914274661859945,-0.9268238719478363,-0.616130122417937,0.6308399270672016,1.228314998618551,-1.4576581687058896,-1.9305055781523763,-1.9759746059389185,-0.056355103683893015,0.027418417028643994,-0.2858148689388942,0.6741905050492605,-0.9951325005019335,0.3555030506553392,1.6807290373573363,-0.5726336106018594,-0.0861405751729659,-1.8180162176167378,-1.2474263250377104,-0.22505223398980445,-0.11402934739455077],"bias":-0.5936952714536039,"training_mae":4.8388545725881285}